function [y1,xf1] = myNeuralNetworkFunction(x1,xi1)
%MYNEURALNETWORKFUNCTION neural network simulation function.
%
% Auto-generated by MATLAB, 23-Oct-2020 11:33:36.
% 
% [y1,xf1] = myNeuralNetworkFunction(x1,xi1) takes these arguments:
%   x1 = 1xTS matrix, input #1
%   xi1 = 1x1 matrix, initial 1 delay states for input #1.
% and returns:
%   y1 = 1xTS matrix, output #1
%   xf1 = 1x1 matrix, final 1 delay states for input #1.
% where TS is the number of timesteps.

% ===== NEURAL NETWORK CONSTANTS =====

% Input 1
x1_step1.xoffset = 40.0139;
x1_step1.gain = 0.200487183856772;
x1_step1.ymin = -1;

% Layer 1
b1 = [15.868719789446663171;10.821442707570822606;-4.9454615432411195286;1.3718118008573689792;-0.85964283746088976379;-1.9717677958924384463;-6.8579520648744072275;8.0267592940178591476;10.401380906134376048;-10.03446252665015237];
IW1_1 = [-8.3356885122519575049;-11.249814730454900769;7.3944467931673703021;-3.3379582355261105953;26.547019804980084956;-16.108796283286519468;-18.471082774305124019;14.094114661246843312;12.749241413572846682;-8.739895407483087908];

% Layer 2
b2 = 0.25608782009553970882;
LW2_1 = [-0.46721158649515698302 -0.095652921456626502361 0.033720395575722650339 -0.2628379377076274781 0.064911798468573714271 -0.071531010301731062784 -0.090751389105364371757 0.10539205387025121774 0.1083247939623699363 -0.2502423520524080236];

% Output 1
y1_step1.ymin = -1;
y1_step1.gain = 0.0128205128205128;
y1_step1.xoffset = 961;

% ===== SIMULATION ========

% Dimensions
TS = size(x1,2); % timesteps

% Input 1 Delay States
xd1 = mapminmax_apply(xi1,x1_step1);
xd1 = [xd1 zeros(1,1)];

% Allocate Outputs
y1 = zeros(1,TS);

% Time loop
for ts=1:TS

      % Rotating delay state position
      xdts = mod(ts+0,2)+1;
    
    % Input 1
    xd1(:,xdts) = mapminmax_apply(x1(:,ts),x1_step1);
    
    % Layer 1
    tapdelay1 = reshape(xd1(:,mod(xdts-1-1,2)+1),1,1);
    a1 = tansig_apply(b1 + IW1_1*tapdelay1);
    
    % Layer 2
    a2 = b2 + LW2_1*a1;
    
    % Output 1
    y1(:,ts) = mapminmax_reverse(a2,y1_step1);
end

% Final delay states
finalxts = TS+(1: 1);
xits = finalxts(finalxts<=1);
xts = finalxts(finalxts>1)-1;
xf1 = [xi1(:,xits) x1(:,xts)];
end

% ===== MODULE FUNCTIONS ========

% Map Minimum and Maximum Input Processing Function
function y = mapminmax_apply(x,settings)
  y = bsxfun(@minus,x,settings.xoffset);
  y = bsxfun(@times,y,settings.gain);
  y = bsxfun(@plus,y,settings.ymin);
end

% Sigmoid Symmetric Transfer Function
function a = tansig_apply(n,~)
  a = 2 ./ (1 + exp(-2*n)) - 1;
end

% Map Minimum and Maximum Output Reverse-Processing Function
function x = mapminmax_reverse(y,settings)
  x = bsxfun(@minus,y,settings.ymin);
  x = bsxfun(@rdivide,x,settings.gain);
  x = bsxfun(@plus,x,settings.xoffset);
end
